// Auto-generated weights from training
export const BEST_MODEL_WEIGHTS = { "W1": [[0.5518686955599614, -0.8392338181186914, 0.9077099311625203, 0.1517386117254127, -0.6124500686902312, 0.8509882149356642, 0.8685474175493708, -0.6230021971165305, -0.7164918695997184, -0.09267381842428679], [0.9609368159819285, 0.7524293912280151, 0.8391492088938124, 0.7663850400210306, -0.04828686107491942, -0.7462658249057281, -0.22841409898803344, -0.02996816872614083, 0.26887495450370547, -0.21178510831547204], [0.2157094020143855, 0.5815814924131186, -0.9180802240738877, 0.637590619236978, 0.5770649517695026, -0.6742877211196192, -0.24865051604588295, -0.4701617010895751, -0.19308816852194077, 0.4981731265065221], [0.8061529310172229, 0.22164382917966452, 0.060573535576946336, 0.19281274781498903, -0.3150728097497404, 0.2070503422828962, -0.7512483234050087, 0.3719055763921155, 0.46500267483141844, 0.35697593067412625], [0.9549912445103217, 0.9170334379127112, 0.3526672776351101, 0.7270010806737361, 0.3262994314671426, 0.7571585769478488, 0.08379965496378339, -0.3381242697423692, -0.5432000827835317, -0.5384234806171204], [-0.45922702343194066, -0.7508974456877708, 0.7869731340550876, -0.9094471734577794, 0.5237037221936518, -0.0031183503612297603, 0.043858852732104436, -0.7087514617998376, 0.6063823135236848, 0.36424536546678765], [0.5732498877543328, 0.9693836401339699, 0.4594696018160873, 0.5748689186498386, 0.4315239170160263, 0.6181697161006514, 0.2763539599247693, 0.9886986942054725, 0.6349292057106166, 0.3184655938943879], [-0.4608358300142401, -0.09573535860570526, -0.1389875527319362, -0.11545227225396326, 0.7521567237144335, 0.11578912040839362, -0.786349446705908, 0.7337694121163771, 0.2653434414886615, -0.19134510772045], [-0.3248867357854788, -0.5196616839997279, -0.650738367469095, 0.8185105482681827, -0.28469282224880677, -0.4332396212267704, -0.4510469059426401, -0.015309865951131041, -0.29301456160750017, 0.5071746178240839], [-0.044917865749587005, -0.25932252297828895, -0.1847081533359487, 0.25541711671385814, 0.4555533919841026, 0.2722442380969703, -0.16361396211637835, 0.8134977327447781, 0.3727816492296061, 0.044206097736649186], [-0.26048755758771236, 0.5278060610488795, 0.13036832979966229, -0.2101165750198819, -0.24373504172120808, -0.3507047936902079, -0.5244987663446483, 0.41524422807283234, -0.6223127660434387, 0.08867478677862395], [-0.10327997426473146, -0.5162819891352508, -0.2911471251067228, -0.9994045642725549, 0.25061898437294805, -0.0748156216776108, -0.20553177711669246, -0.6952815090832929, 0.4216945149909468, -0.5738367680545118], [0.46265480773927914, -0.312993299601376, 0.7422488877579385, 0.1125321991226802, 0.06329210135790908, -0.9027467017998889, 0.7985329638375853, 0.8256522450611958, 0.7472665220079879, 0.39102885234019436], [0.8567236898117974, -0.13293577988527927, -0.19794130905237406, -0.38296211209701614, -0.5108106794631961, 0.7996397393953272, 0.12126405535225637, 0.6622550263237907, 0.22764262815509229, 0.9006306685450352], [-0.45191342186377703, -0.06185169076808217, -0.10382690583784249, 0.27001455197621826, 0.2936120412203984, 0.7812723818513272, 0.515098861664963, 0.39949858491890566, -0.06599147137690076, -0.24978394807737092], [0.30410822456505504, 0.5859942355894281, -0.6341143385707493, 0.011712206028389849, -0.989681625144329, 0.1980401448144522, 0.6836157096504119, 0.30521183193362855, 0.9945408704766872, 0.9086938865771228]], "b1": [-0.32463329246367123, 0.3301644658168217, 0.834227979563751, -0.8907854055510398, -0.41577448011218454, 0.6447643879132487, 0.8477078250469785, 0.71019407370122, -0.8929000077679099, -0.7372454154687498, 0.17154580773170003, 0.5540648776959018, 0.8882710418166591, 0.5066780524899916, 0.6799955471876344, -0.5896823971709171], "W2": [[-0.7083110923337383, 0.8777238869600059, 0.6087871135097822, 0.8204129587634423, 0.6846330205869731, 0.9677267628128561, 0.448217767629316, 0.639031501761165, 0.36577960667170917, 0.7380465732115549, -0.43852051733501596, 0.7022419584325061, 0.5064357224794114, -0.42936316406239006, 0.722898744565245, -0.11139822295100954], [0.45630313539521117, -0.2994596798302773, 0.4719193572265534, 0.7469439462376333, -0.4316138364186006, -0.25227981382975617, -0.20755325721449447, 0.2615304838458574, 0.14128941469099954, -0.6771436034863656, -0.5939346065009572, -0.16964271933861585, 0.9572579364900573, 0.5645778458846789, 0.3631805787857474, -0.32296933609849643], [-0.18414781317569018, 0.9264427314175474, -0.04040102187064498, -0.9269613376694006, -0.2680655624940511, -0.5274841221002087, 0.9248867483485317, -0.7400007889677898, 0.9891509273161789, 0.8530768993930786, -0.38837245306878887, 0.949111494305815, -0.96316501966678, -0.8484831331104621, 0.5664300418599879, 0.08900484981756218], [-0.38174939470856595, -0.519908012193175, 0.4240788940643423, -0.09253974498099549, 0.5744504459185393, 0.7499394054192385, 0.9012771869027152, 0.129675746633801, -0.7807651055021212, 0.9396291750224119, -0.22643760199756446, -0.7579008970997199, -0.04256022016507233, -0.5863532469283896, -0.14239853031066319, 0.3399338924320079], [-0.6782530623644889, 0.5894237753746789, 0.6519044333471202, -0.07864369286488482, -0.42016886036613843, -0.29106665445547897, -0.7505667172062314, 0.3266400514082479, 0.39860918464657047, -0.45681046148663884, 0.586623097647762, 0.8848881581577888, -0.7072231873667465, 0.9133262688810277, 0.029408098078141043, -0.09351307858425528], [-0.40175679771967854, -0.788526723878552, 0.7183088593223386, -0.2607491985850625, 0.8924032898684373, 0.38477843783614274, 0.8790287761181539, -0.6907959957780254, -0.09866197438828972, -0.12883846871081306, 0.26370442576767683, 0.1416474540248458, 0.4206632352773507, 0.2752363806711431, -0.38006898137980216, 0.746525527281592], [-0.022497652247926325, 0.4113348635213603, -0.6593472941505221, 0.36652103173470185, -0.05780267692595564, -0.00786439931290328, 0.24686718273418307, 0.21307335475887013, 0.18275438361106944, 0.9395108947008577, -0.671377278966923, -0.31878972811489303, -0.6089748690502976, -0.9176346912220004, 0.7302040816292292, -0.6548727739312448], [0.07031581459982283, -0.5775525230867669, 0.9856544116387542, 0.4840481803691026, -0.16143760560533993, -0.3633329135041814, -0.5765680185489819, -0.546031231524793, -0.8698204654517991, 0.4952899502976347, -0.017195211325367943, 0.43813772513138094, -0.5117221783627823, 0.27245998981078867, 0.9750289540894366, 0.45520648634995786], [0.01655686692874503, 0.6057501158966978, -0.8425793216727289, 0.46317287312894573, 0.2464628339290067, -0.22883388982380026, -0.1917293766064001, 0.35743551613800517, 0.05789035371509699, 0.42902301687182987, -0.14451972589378936, 0.278221043099943, 0.9254038483777909, -0.6895395999178575, -0.7331372912254976, -0.9040721316523395]], "b2": [0.5788458447099376, 0.5765654412576093, 0.8741753176886935, -0.00537725503203168, -0.6121180623327567, 0.40088852527769503, -0.3926155081497815, -0.5359912460920573, 0.7162386351048666], "fitness": 0.0 }
