// Auto-generated weights from training
export const BEST_MODEL_WEIGHTS = { "W1": [[-0.2014058320479057, -0.7790399325759723, 0.31032973210876813, -0.08206925926951902, 0.3761926657805459, 0.18045287488628592, 0.20564286075291793, 0.31176066107247613, -0.637316540044272, -0.10919873932150576], [-0.04284193366840405, -0.3818484909821422, 0.5872652864148484, -0.4151675239452848, -0.4429844542495638, 1.262398823450705, 0.21276393581233766, 0.7200166008334691, 0.5942668912566293, 0.9090683686179594], [0.3123895059385371, -0.25497179756425625, 0.45664618459183903, -0.14139265874341578, -0.4124563677355473, 0.5185147766476175, 0.23560413727142215, 0.07626100705349281, 0.5389916164557644, -0.1535824400453616], [-0.8752187594669162, -0.8091368059802426, 0.47190125186581877, -0.915740774992542, -0.595365832122607, 0.57198201846773, 0.8634262526708565, 0.32149698470445487, 0.31564805284688013, -1.4391493586085207], [0.1900718197604183, 1.142981145529937, -0.9684911792817916, -0.9306311529527012, 0.022048834863994227, 0.10757415314787505, 0.817898828030329, 0.42885800896829007, -0.7415116356207847, -0.6583642996504311], [-0.1601590748380628, 0.9710003241106844, 0.8992947561264466, -0.8308212002153488, 0.621480662509456, 0.6857530041355324, -0.2797792922867044, -0.022698357102034494, 0.165502396092854, -0.4102334144459843], [-1.2570457081642015, 0.22655911072439044, 0.3085437255739854, 0.31080800295988253, -0.15710336070872954, 0.23451579931656075, -0.22154031834185672, 0.5889650111356604, 0.8460118698858996, -1.5848887259341333], [-1.3197383986429618, -1.0656363526954573, 0.8617461256359022, 0.8519518919366498, 0.6397104968515129, 0.3642109167788118, -0.5088607276447961, -1.2081092508642266, 0.21093263983290553, -1.1399628517064957], [0.9825650645231918, -0.7301143850352612, -0.9572680773198516, -0.39019044735113995, -0.6293312649584734, -0.12858557392850667, -0.7351889295838296, -0.6328234979569768, -0.3898074620589036, 0.7464312316904642], [1.6038040363060524, -0.7793522146502214, 0.6223456563979726, -0.7999160802250114, -0.797512903514519, -1.159330941337238, 0.3581612524670642, -0.36667792523057396, 0.83412408500936, 0.5075853999502529], [0.8589865717463241, 0.8824195046039334, 1.0105180311402073, -0.1083149184256587, -0.18185751711250786, 0.3614501608221882, 0.02850266250438316, 0.1161549691558148, -0.968454288929443, -0.4037239836488624], [-0.549210009883488, -0.1740936964419492, 0.652541899652747, -1.5355934048727433, -0.024460414938450026, 0.13854812760639879, -0.9811579031841927, -0.002668563234090704, 0.3086977649799836, -0.47022668145654545], [-0.8471756938455037, 0.7486135568565115, 0.2846219741620486, -1.074569683490667, 0.4142417186781453, 0.5726525106013487, 0.7191191188798463, -0.8578294835009084, 0.7229328962052066, 0.1764764642358061], [-0.5102158609578458, -1.2330265733862604, -0.2755465231828664, -0.06660021857962573, 0.1382443486651721, -0.04194765736520502, -0.6333334311954695, -0.06953693352617041, -0.16719940311636083, -0.8094802243559791], [-0.8398468230840026, 0.7147235129466177, -0.36080010195796297, 1.0228734622746183, -1.1983885881757734, -1.2446151349371672, -0.5071409471568469, -0.25032951202075004, 0.8955635586290922, -0.3964443474144159], [-0.8090023199811567, 0.41295192829248895, 0.6556406659214442, 0.6902493477678542, -0.1210016356309096, 1.3950605776274467, 0.4543671986265825, -1.3481274946465058, -0.42351501322695184, -0.7107638872265523]], "b1": [-0.5694564445592809, 1.048570505338619, -0.3894476603627288, -0.6805865369051427, 0.7587241998909308, 0.6176110109064596, 0.6635668823883467, -0.48983486517386726, 0.5989054919581082, 0.7551071459267991, -0.3650964803519733, -0.13188687212199945, -0.9088318878791812, -1.0442085174885762, 0.363096593637646, 0.17485139297558372], "W2": [[0.741262494999744, 0.49735651842529066, 0.38787522588924866, 0.2888177854619187, 0.5282874183434332, 0.9651635523637743, 0.49695258327317643, 0.21187816778210888, 0.6920471649762199, 0.5815987768183899, 0.9795267713471041, 0.46570764633563444, 0.08389573908828574, 0.7849785470482662, 0.0789439534727363, -0.06554092684712276], [0.9010908432835358, -0.5755382284419712, -0.5321647112613559, 0.6754719847649036, 0.4198076361806973, -0.6745512707124053, 0.1494707165796489, 0.5572513696994601, 0.8780527743291009, 0.528850440693075, 1.1023777138368396, 0.2947629114955209, -0.20665626493229916, -0.19806938338212104, -0.5625842549364366, -0.018241984737744188], [0.08039672133836584, 0.5700614232895522, 0.7127679565929022, 0.4312419075086184, -0.08391450886782512, -0.47578590375773844, 0.472215806455982, 0.1759091727814912, 1.0403130687113933, 0.8917316354129856, -1.0722759177337315, 0.13091223026309518, -0.5021717886177248, 0.31893335124179834, -0.15351063383411367, -0.4197655296220646], [0.533829992969618, 0.03786228781385548, 0.5606167752988731, -1.412347295901546, 1.381124402494172, -0.744464413564208, -1.4662758906196014, 0.9826735794743098, 0.6089892924256615, 0.28708678347952543, -0.1758701179352416, -0.31049158318463516, -0.6426660099030985, 0.5285020008749934, -0.8553455931551189, 0.8375323461973273], [-0.045807432517614155, 0.03521432042668221, 0.789390466885012, -0.5967113495466365, 0.022628518188081648, 0.7953740132988572, -0.292493974399728, 0.3138308414183484, -0.472018228349232, 0.9786430503745871, 1.5516333207589799, -0.1922613893491022, 0.8266494566950935, -0.6950985926956172, 0.26655774335640103, -0.9386766850907451], [0.6042488923785425, -0.11250438447870081, -0.8335267616611532, 1.942411721344762, 1.0721284933592305, 0.33420363623707117, 0.9196851713358395, -0.010048470861697245, -0.6048069433032517, -0.7512624635053675, -0.3621606560574583, 0.9354439005822903, 0.6558076577326413, 0.45334699270495404, 1.7647153405300544, 0.871932774263037], [-0.14509565245657963, 0.647381533265392, 0.015238450828964023, 1.2958525075297427, -1.4470641553473327, -0.08038896973774223, -0.22154275436460535, -0.8879140321656969, 0.4736043572611439, -0.3945751766741161, 0.6000296982648962, 0.09110012265482581, -0.4900386600264879, -0.7411212906804829, -1.0229483908691068, -0.6272890428529843], [0.5520265035787808, 0.035065439927246755, 1.0906050226612831, 0.23185979263883122, 0.9196236424657667, -0.7993933693298807, 0.21041330477953424, 0.6346600937019027, 1.0020747254502902, -0.020505155158437982, 0.8346990004153247, 0.3003206796238749, -0.2538636012704928, 0.3009302961793822, -0.08759625567513196, -1.229511333182263], [0.07647072428471047, -0.6340247673736938, 2.099115933780103, -0.738449192703615, -0.8427701542482327, 1.0657827259819612, 0.17038712653557342, -0.32347675244863944, -0.7564599243461483, 0.5134872474267638, -0.27343877927602445, 1.082898796891521, -1.4648758374238118, 0.014286881658970553, 0.5669691624217074, -0.14385410135712395]], "b2": [0.8928468785856098, -0.08823037248511723, -0.7516356104971951, -0.7008521687734846, -0.5541143992315696, -1.2229980016329922, -0.37009678706323346, -0.7481979993319348, -1.245131431209034], "fitness": 2698.1017020225527 }