// Auto-generated weights from training
export const BEST_MODEL_WEIGHTS = {"W1": [[-0.13330977313057163, -0.39323432894824933, 0.030621496664193115, -0.870935919810592, 0.5464765888413452, 1.1981074851777254, 0.9409972934619528, -0.8793810580563834, -0.2848910088669553, -0.5325729776083554], [-0.7839138616005862, 0.06945480385356463, 0.42121703370026287, 0.0654461252372418, -1.0486720643699563, -0.5596531743666544, 2.6026721179449286, -1.4559112191586543, 0.401594482383668, 0.18374920703812592], [0.21386889581304552, 0.39288157082786945, 0.15257092632370495, -0.7687934513443273, -0.5138570976391024, 1.7000082013066944, 0.768651866970772, 0.8271867012011231, -0.4417771026515369, -0.06491713652942588], [-0.2997004919842019, 0.9580079458617585, -1.2750859625553477, -0.564339214302884, -0.5035406673073111, -0.09086898777776092, 1.132097334885292, 1.4673462196635618, 0.018608402397848306, 2.131001353489246], [-0.5518294285437979, -0.23094043032439704, -0.25030218725375514, 1.2815343665437113, 0.707936253964642, -1.1337081432541642, -1.1463704574414493, 0.7574929936967183, 0.4703749202440119, -0.31145953617848937], [0.45565027574687017, -1.4389919900173436, -0.9245211780657481, -0.36696801765347686, -0.9353588224267222, -0.17111997371968812, -0.29021785416091567, 1.5614938224565933, 0.31219866362348325, 0.6461963338170873], [-0.5972366849532273, 1.1135158350506666, 1.5098327918796837, 0.8633572332674648, 1.7384555938653314, 1.0778734885068701, 0.4489276110619784, -0.06469078570430736, 0.7998132954577823, 0.7466190708564333], [0.5721209141090349, -0.2539937578706867, 1.4687968295142548, -0.5031841237501367, -0.310183675421173, 0.09032074552966027, 1.0069315282253926, -0.3290018569086497, 0.5766875270539051, 0.6746302473011796], [0.46714745031908533, 0.6804901080136211, 0.11908425221153335, -0.0552185965308869, -1.926073472304168, 0.3692406302604308, -2.8558693545685836, -0.7273388414686361, -0.48901619361669857, 0.32085052614301773], [0.1215210316039248, 0.3256317335283603, -0.6553799435402514, 0.8411241610125113, 2.7543553540979406, 0.5899416640908396, 1.289190643996142, 0.7152342080252337, 1.0180280062762548, -0.5319909165969124], [-1.298595575421316, 2.2392309383123887, -0.05092525073532691, -0.5075364163989453, -0.3448213067323022, 0.3046038686923018, -0.23548200443055842, 0.6898742500088704, 0.11616392503475609, 0.25159160135416936], [1.1081915551798995, 1.7881809921913785, 0.2816467707546997, 2.159161851698507, 0.18131105450805957, -0.3042198231030069, -0.9914234953865382, 1.098078061188322, -0.2627373571623574, -0.18286719124859663], [-0.7465271198084884, -0.5602727400088703, -1.305855406897419, -0.22206410164151957, -0.6810306738421226, 0.4123272424926317, -0.9048797884123414, 1.5477395327206556, 0.45258092285311946, -2.420518519683002], [-1.1103969791259902, -1.1298771402233685, -0.18277520703947758, -2.539621585198989, -0.07978101451871773, 0.9007358437337813, -1.2423126440273171, 0.4727464334333751, -1.3271697849607729, -0.18061529325087483], [0.8205262266563708, 0.6324195922150406, 0.6271527988971388, -0.4956810915585786, -0.591434930598226, 0.7727621189211611, -1.1823827359502546, -0.411767434361888, -0.7452065113591646, 0.8449706262892835], [3.456586424419026, -0.5383747871594785, -0.44776429874277074, -0.29949576799433103, 0.5300583039584525, 0.8181382262902558, 1.7675920542456944, -0.03183180575388106, 0.8474053629193117, 1.4444787630368983]], "b1": [1.6876463166711193, -0.47782297361361464, 0.9761492960926057, -0.6607683757811533, -1.1654198619851164, -0.8589822827698453, 0.396522845086482, 0.3589382242794159, -0.49878034658428905, -0.24035061180408407, 0.3414072570917688, -0.5276662953414963, 0.5427618739148292, 0.869766924831801, -0.7194876709180926, -0.35273011069571414], "W2": [[0.5888869100863499, 2.5270903636359208, 0.379132914726509, 0.5491666305598315, 1.7370390287573323, -0.7992076406560865, 0.6077874662478033, 0.9280261169191066, -0.822554958589711, 0.7369320232679235, -0.4762251030559673, -0.16009913410139917, 0.037675224613289225, 1.0567540103879396, -1.4210030125316542, -0.36952156786041457], [0.12581911670831347, 1.3478317995419484, -0.17832448822539104, 1.6529343948756337, -0.44952227872235173, -0.7497997184833851, -0.9427906155044412, 1.231505782116027, 1.1820702770184766, -0.1627596016177124, 0.16014199994349168, -0.20382512169666228, -0.879034240654377, -1.5095547152228708, -1.2360392712953603, -0.7358874756227808], [0.038495243959920655, 1.5526281896553347, 0.3338689242548478, -0.11805781129849835, 1.8511108896737254, 0.6326102013552477, 0.34790247817202963, 3.4054049142860103, -0.5558654305457142, 0.1558425384182704, -0.882876754471956, 0.7989432097001472, -0.4477560709607611, 0.05697272873811943, 0.20202764060330525, -0.18838167556459462], [-0.5759340134095715, -0.1498935010698399, -0.2373035426782446, 0.3480723796552565, -0.1670421659434192, 0.29368321496353267, -0.3572272012941582, 0.017108928352904562, 0.7288020059692542, -0.46389648455939203, -0.13707785431259611, 1.2849737098215777, -0.8049737073104271, 0.34688647499359204, 0.35151692509498655, 0.7019158952370212], [-1.3924216565263638, -0.19607144019036848, -0.9205928864450306, 0.3603953195554949, -0.10251786467063839, 0.3545794580408901, -0.843515332162641, 0.7810393964760076, -1.2018164797044566, -0.6238348113226726, 1.8383340150725518, 0.2996953254771555, -1.6807290846000162, 0.32863042187800684, 0.04852056409820122, 0.06954091176741817], [-0.4667973921710771, 0.5171394811225597, -0.7150217039571515, 1.5870503878024023, -0.6135270892857905, 0.3925973663551514, -2.3573428066222566, -0.7291250117646282, 0.057779631828253436, -0.9218256186028038, -1.0976204340827946, 0.3815778006904325, -0.2781204845715271, 0.13444495416451363, 0.8413247992889489, -0.36092545826425243], [-1.1036925851748622, 0.021030732054456026, -0.2246199990418135, 0.9198553735507919, 0.9764795966624019, 0.6558787327164561, -0.6926114704169604, -0.20368666311081673, 1.7851981210036743, -1.5113029169302372, 0.1542937748359623, -0.975044765346794, -0.39064898872523496, -0.8138312944101067, 0.44884214054215443, 1.704506381644701], [-0.9845299615719488, 0.7334072830826187, 0.3275354953545384, -0.7531782197375987, 2.2551384609063443, -0.6762856938382037, -0.3057971848752496, 0.9007271158488526, -0.030778090825713644, -0.3489603390673903, 1.2695745841354549, 0.1165467741335724, 1.3598704312048766, 1.738929852004138, 0.022041794334567433, 0.24528970885971915], [0.8937264842281687, 0.39306429702713286, -0.8211905580412785, -0.4554866911862747, 0.7684665501818949, -1.332341070314738, 2.1437315226428497, 0.1480630522900956, -2.0345703801253734, 1.2280177910312762, 0.32881480653644457, 1.9005825828204679, -0.8918087499104496, -0.07602040859147063, -0.4928187160201103, 0.603817740668815]], "b2": [-0.6657736625182841, 1.2338846264010312, -0.17603904493664205, 0.7371041976906934, 0.9544839992773735, 2.9852017947770286, 0.967114037756639, 1.3994404388773618, 0.4444504494514474], "fitness": 2334.5209058761593};
